12 4 16 26
-0.63402  0.240921  0.108107  -0.0897512  1.65534  0.170529  0.703882  -0.520293  0.821816  -4.96381  -4.14327  -1.49923  0.152983  
0.468516  3.97716  -3.97801  -1.74524  -0.636869  5.71363  2.60334  -0.804509  0.0290156  5.68994  1.10715  0.800536  1.56759  
-1.01393  1.58177  3.00627  1.90922  -1.71184  1.27349  -0.896652  -1.20996  1.12032  -12.6382  0.566054  -4.57452  -0.889363  
0.58211  2.22767  -1.80685  0.146527  -7.63026  2.66319  1.32376  -0.510963  1.1362  4.48685  3.25533  -0.332644  1.31562  
0.181599  0.906442  -0.541973  0.0123833  -0.0519631  1.77139  1.80225  0.362416  -0.712456  -6.02941  -0.0302531  -1.92294  0.127182  
-2.1447  -0.467881  -3.14142  -0.095928  -3.00793  0.403821  2.42961  -0.464623  0.109133  1.59026  2.49519  -1.32742  1.259  
1.07442  -1.13007  -1.56208  -1.27484  1.03293  -1.04748  1.05318  1.84291  1.2419  -10.0622  -0.896573  -4.78716  -1.85816  
0.751125  2.10389  -0.943987  -0.482475  -1.24032  2.98415  4.01168  3.00507  0.777583  4.64464  2.80401  1.37113  2.85051  
1.52298  2.04432  1.70727  -0.830122  0.0921677  1.22098  2.14165  0.785528  -0.246742  -4.38453  -2.83794  -3.94426  -0.618243  
-5.55217  -2.33742  0.0602924  4.69573  0.0752812  -2.10739  1.05995  1.1714  0.081709  4.43716  7.47533  0.802972  0.450967  
0.792601  0.977427  -1.17925  -1.32773  0.283645  1.07042  0.026628  -1.10063  1.29979  -7.66813  -1.31528  -0.127592  2.3344  
-1.54853  -0.334767  0.617756  0.622447  -0.85463  0.644281  1.85238  0.10179  1.22262  7.48792  -1.57744  -0.324001  0.562859  
-0.974817  -0.849355  1.37448  0.334616  4.07115  0.845347  1.87415  1.0703  -0.338694  -2.52191  -2.4456  -0.803071  -1.88767  
0.615094  5.20059  -2.62309  0.792743  -2.77062  2.09913  3.67934  -2.17392  0.100839  6.41407  2.05119  2.76489  1.68641  
1.46425  0.759418  -0.454549  -1.45333  -0.183729  0.289176  -0.0331974  -0.357017  0.277048  -6.74914  0.97232  -1.61723  -0.494237  
0.932071  -0.17161  -4.68288  -2.18164  -7.32876  -0.196632  6.35553  0.274115  1.03742  1.80014  -0.158411  2.6995  -2.92526  

8.1062  -12.9455  25.4989  -6.7695  44.951  -6.5277  22.3203  -14.6809  12.2775  -35.1103  5.52119  -1.78052  13.8728  -4.30475  49.1602  -11.3806  71.3359  
23.6017  -5.49266  26.0862  -34.5277  14.0377  -9.05202  15.6316  -0.550793  15.3806  -19.6323  16.1009  -30.1325  10.7152  -2.77486  20.5562  -5.08582  3.71211  
-6.30627  -6.71428  22.3222  -43.8246  42.8904  -5.44408  7.59235  -14.2895  10.0066  -25.3267  1.27793  -15.9316  1.38231  -24.344  18.5918  -2.26001  10.2227  
-3.76354  -18.059  18.0446  -54.6859  15.8437  -20.0768  2.515  -66.7269  2.55405  -14.8415  48.2061  -15.5066  31.7269  -5.58467  6.25183  -24.8438  7.63454  
