12 4 32 31
1.84611  -0.57555  -1.14657  -0.0967057  -1.17357  -0.497503  -0.479573  1.71417  -1.64993  -8.65866  0.183646  -3.32846  -1.32698  
0.750306  1.25815  -3.13693  -1.66088  -3.14183  2.55248  3.22657  -0.420163  2.10831  2.0133  0.480215  -1.39715  -0.781176  
1.21259  -0.221328  -1.33712  -0.815239  1.51328  0.120093  -0.0567046  0.250756  0.786648  -5.9795  -1.26544  1.45553  -1.50603  
0.0285485  2.44849  -4.17532  0.667806  -4.66898  -0.186495  0.65841  -4.28136  -4.36224  3.57479  0.543302  0.845334  1.17941  
-3.4851  -0.747531  0.322658  3.19917  -1.62558  -0.674227  -1.32794  0.565056  0.3643  -3.19258  1.38886  -0.387194  1.61063  
0.9843  0.417689  -1.89032  -0.405693  -4.07756  0.67552  2.993  0.450271  1.45474  1.53759  5.23921  2.68855  1.62199  
-5.43396  -3.7496  1.19177  5.02949  -2.67611  -3.1943  -2.14756  0.657743  1.13417  -4.88023  3.5584  -0.780086  2.61795  
-1.61819  1.06385  -1.39638  0.171814  -0.355343  3.13521  0.599628  0.328231  0.382528  7.83052  4.0948  6.40208  2.80122  
0.486208  -1.79267  0.0305782  -1.18824  0.215597  0.856404  0.285777  -0.306694  2.80421  -3.15269  -5.23219  -1.80017  -0.322631  
3.47555  0.88469  -0.892693  -3.78298  1.88725  2.33258  1.83268  0.586286  0.0512313  3.26624  -2.07488  0.694047  -1.93897  
-0.387577  0.637345  -0.37809  0.608147  -1.31697  -0.414931  0.19262  -0.772956  -0.515787  -9.8056  -0.371022  -2.10812  0.0316867  
-0.292078  -1.03393  0.420887  0.13997  -6.71681  -0.316879  -0.167061  1.64091  0.717182  3.89334  0.807341  -0.352247  -0.468539  
1.72379  -1.65195  -1.52924  -1.33834  -4.00143  -1.70736  0.434093  -2.31695  1.40565  -11.0667  -0.874548  -4.04707  0.870588  
-1.70663  1.67017  0.0772866  0.284041  0.883167  2.74432  1.59365  1.44042  0.64773  8.14769  0.0783474  2.62376  -0.536415  
0.534099  -1.03144  -0.548966  -0.775354  2.32528  0.101435  1.48527  -0.971618  1.95119  -5.11865  0.0340694  -0.871334  0.448266  
4.18661  0.67929  -1.43041  -4.30071  1.92317  1.62535  2.29233  -0.151339  -0.217334  3.21902  -1.9061  0.381388  -2.36693  
1.65963  1.84493  -0.673282  1.04854  0.469991  0.60264  1.1881  0.327284  -2.47722  -9.00041  -0.129196  -1.5405  0.913104  
-1.248  -1.23277  0.682288  0.288817  -1.97307  -0.339985  1.03257  0.100335  -2.38715  8.35562  0.379511  2.3112  0.52574  
-2.75182  -0.958938  -1.63108  -0.231979  -6.25575  -0.044335  -4.8507  -0.0472334  -1.49681  -6.88132  4.59318  -1.01489  3.30526  
5.97072  0.477388  -1.638  -5.63794  3.81397  2.5889  3.64846  0.485879  -0.00160848  3.48548  -3.07958  0.209064  -3.87695  
0.297467  -3.45148  -0.56965  -1.16193  -1.12479  -0.485722  -1.81398  -0.209664  1.7358  -3.15827  -3.49854  -3.99072  -0.360473  
-1.63841  1.54493  -0.67904  0.506089  -0.00700949  3.40183  1.25134  0.845506  1.59216  7.22468  1.78313  3.14694  1.73915  
-0.818987  -0.0807587  0.375662  0.584609  -1.43449  0.24377  -0.349873  -0.989852  -0.411262  -4.93996  -0.866618  -2.09129  -0.304903  
-0.0262519  0.107929  -0.664506  -0.359155  -0.581005  -0.158519  0.396418  0.906315  0.845717  6.55015  2.21656  1.91108  -0.103638  
1.70034  1.93182  3.86341  1.55264  0.137156  1.89354  -0.328246  -0.78109  -0.24017  -3.88755  -0.0548113  -3.06162  -2.48628  
-0.060807  3.74478  0.0673547  -1.91495  -2.26589  1.84918  2.24935  2.33333  3.33268  -0.408359  -3.13221  0.778436  -0.466492  
1.49251  0.764273  0.31961  -0.946542  0.122973  1.12282  1.84756  1.28096  -0.0453665  -5.13899  -1.15252  -3.11574  -0.487853  
1.24341  1.52389  -0.638637  -0.923974  -4.3276  -0.110174  1.89036  0.0565289  1.39776  1.59204  5.4055  1.93925  1.87368  
1.45115  -0.104522  -2.0935  -1.13461  3.4159  -1.03389  -0.236054  -0.0343837  -0.493781  -4.75842  -0.768872  -0.163089  -5.9241  
-0.381022  1.80931  0.601073  0.539516  -1.35157  0.39769  0.862061  -0.0126686  -0.345183  4.24552  1.40407  2.17128  0.188551  
2.36482  -1.80384  1.30062  -1.67788  5.09764  -0.989406  3.48806  0.232805  -0.425693  -1.58732  -2.12227  -4.05758  -2.34131  
5.7762  1.29798  -0.812545  -5.71875  4.24902  1.28926  2.5735  0.478959  -0.537042  4.86171  -3.9157  0.276062  -3.61234  

2.35514  -2.1088  15.8117  -2.52264  19.4596  -7.25511  19.5481  -8.98618  34.7203  -8.55249  7.42726  -10.1414  25.2241  -2.57523  22.3065  -5.4937  14.4708  -4.49803  7.27549  -3.92447  11.2874  -16.9668  28.4366  -2.44346  17.3431  -14.5951  9.04456  -5.75259  10.4643  -2.92331  10.7136  -6.25999  9.42773  
5.12473  -2.15361  10.9404  -0.88161  9.84283  -8.73677  4.40923  -16.9528  39.7491  0.0519786  11.202  -20.3504  11.259  -56.0152  25.678  -7.46852  17.985  -3.24022  9.45303  -14.3004  15.2348  -4.04774  21.612  -3.67977  10.1841  -0.973406  5.94103  -9.38443  4.88365  -1.52025  4.7568  -7.00639  15.2443  
-5.04522  -12.0293  13.5622  -23.8427  28.7307  -10.2169  15.0638  -29.0497  19.553  -29.1463  14.3426  -13.1587  2.3933  -4.07818  15.7154  -13.78  11.3707  -2.25132  2.5924  -8.73338  7.99826  -19.1473  3.00271  -13.0311  5.98845  -26.3523  9.61077  -19.0252  32.1878  -11.0676  11.1422  -21.7033  4.57757  
-0.765227  -51.0142  4.50849  -17.7794  3.02742  -8.83298  6.2677  -5.99819  2.19391  -7.04584  10.6006  -16.3355  8.05978  -15.44  11.5946  -15.3108  8.67806  -49.9417  56.9317  -24.2487  4.87994  -5.70201  5.34351  -6.91311  11.1492  -13.5861  4.66287  -15.3241  4.62928  -35.0624  10.5432  -39.5987  15.5156  
